digraph Tree {
node [shape=box, style="filled, rounded", color="black", fontname="helvetica"] ;
edge [fontname="helvetica"] ;
0 [label="petal length (cm) <= 2.6\ngini = 0.67\nsamples = 92\nvalue = [48, 50, 52]\nclass = virginica", fillcolor="#fcfbfe"] ;
1 [label="gini = 0.0\nsamples = 29\nvalue = [48, 0, 0]\nclass = setosa", fillcolor="#e58139"] ;
0 -> 1 [labeldistance=2.5, labelangle=45, headlabel="True"] ;
2 [label="petal length (cm) <= 4.75\ngini = 0.5\nsamples = 63\nvalue = [0, 50, 52]\nclass = virginica", fillcolor="#faf7fe"] ;
0 -> 2 [labeldistance=2.5, labelangle=-45, headlabel="False"] ;
3 [label="sepal length (cm) <= 4.95\ngini = 0.08\nsamples = 29\nvalue = [0, 46, 2]\nclass = versicolor", fillcolor="#42e686"] ;
2 -> 3 ;
4 [label="petal length (cm) <= 3.9\ngini = 0.44\nsamples = 2\nvalue = [0, 1, 2]\nclass = virginica", fillcolor="#c09cf2"] ;
3 -> 4 ;
5 [label="gini = 0.0\nsamples = 1\nvalue = [0, 1, 0]\nclass = versicolor", fillcolor="#39e581"] ;
4 -> 5 ;
6 [label="gini = 0.0\nsamples = 1\nvalue = [0, 0, 2]\nclass = virginica", fillcolor="#8139e5"] ;
4 -> 6 ;
7 [label="gini = 0.0\nsamples = 27\nvalue = [0, 45, 0]\nclass = versicolor", fillcolor="#39e581"] ;
3 -> 7 ;
8 [label="sepal width (cm) <= 2.75\ngini = 0.14\nsamples = 34\nvalue = [0, 4, 50]\nclass = virginica", fillcolor="#8b49e7"] ;
2 -> 8 ;
9 [label="petal length (cm) <= 4.95\ngini = 0.26\nsamples = 9\nvalue = [0, 2, 11]\nclass = virginica", fillcolor="#985dea"] ;
8 -> 9 ;
10 [label="sepal width (cm) <= 2.6\ngini = 0.44\nsamples = 2\nvalue = [0, 1, 2]\nclass = virginica", fillcolor="#c09cf2"] ;
9 -> 10 ;
11 [label="gini = 0.0\nsamples = 1\nvalue = [0, 1, 0]\nclass = versicolor", fillcolor="#39e581"] ;
10 -> 11 ;
12 [label="gini = 0.0\nsamples = 1\nvalue = [0, 0, 2]\nclass = virginica", fillcolor="#8139e5"] ;
10 -> 12 ;
13 [label="petal width (cm) <= 1.7\ngini = 0.18\nsamples = 7\nvalue = [0, 1, 9]\nclass = virginica", fillcolor="#8f4fe8"] ;
9 -> 13 ;
14 [label="petal width (cm) <= 1.55\ngini = 0.44\nsamples = 3\nvalue = [0, 1, 2]\nclass = virginica", fillcolor="#c09cf2"] ;
13 -> 14 ;
15 [label="gini = 0.0\nsamples = 2\nvalue = [0, 0, 2]\nclass = virginica", fillcolor="#8139e5"] ;
14 -> 15 ;
16 [label="gini = 0.0\nsamples = 1\nvalue = [0, 1, 0]\nclass = versicolor", fillcolor="#39e581"] ;
14 -> 16 ;
17 [label="gini = 0.0\nsamples = 4\nvalue = [0, 0, 7]\nclass = virginica", fillcolor="#8139e5"] ;
13 -> 17 ;
18 [label="petal width (cm) <= 1.45\ngini = 0.09\nsamples = 25\nvalue = [0, 2, 39]\nclass = virginica", fillcolor="#8743e6"] ;
8 -> 18 ;
19 [label="gini = 0.0\nsamples = 1\nvalue = [0, 1, 0]\nclass = versicolor", fillcolor="#39e581"] ;
18 -> 19 ;
20 [label="petal width (cm) <= 1.75\ngini = 0.05\nsamples = 24\nvalue = [0, 1, 39]\nclass = virginica", fillcolor="#843ee6"] ;
18 -> 20 ;
21 [label="sepal length (cm) <= 6.5\ngini = 0.44\nsamples = 2\nvalue = [0, 1, 2]\nclass = virginica", fillcolor="#c09cf2"] ;
20 -> 21 ;
22 [label="gini = 0.0\nsamples = 1\nvalue = [0, 0, 2]\nclass = virginica", fillcolor="#8139e5"] ;
21 -> 22 ;
23 [label="gini = 0.0\nsamples = 1\nvalue = [0, 1, 0]\nclass = versicolor", fillcolor="#39e581"] ;
21 -> 23 ;
24 [label="gini = 0.0\nsamples = 22\nvalue = [0, 0, 37]\nclass = virginica", fillcolor="#8139e5"] ;
20 -> 24 ;
}